dense_4/kernel:0
(784, 128)
[[ 0.01322185 -0.07390356  0.08704255 ...  0.20379     0.0696713
  -0.03436871]
 [-0.00255971  0.11638866  0.09969196 ...  0.04355025  0.0358314
   0.02138951]
 [ 0.0202026   0.05107952  0.02909896 ...  0.14418454 -0.069699
  -0.05653336]
 ...
 [-0.04148869  0.0317366  -0.17430055 ... -0.05532927 -0.12821078
  -0.08669113]
 [-0.0762772   0.13330393 -0.1179264  ... -0.01537428 -0.02119167
   0.00163758]
 [-0.00468508  0.15439124 -0.06096856 ... -0.01845319 -0.10093825
   0.08670887]]
dense_4/bias:0
(128,)
[ 0.17797245 -0.23392938  0.12593651  0.2123826  -0.02239738  0.17935593
 -0.3091447  -0.16886999 -0.08544512  0.11552677  0.14551254  0.17001113
  0.2749307   0.01728884 -0.05143847  0.2588919   0.19731799  0.02487478
 -0.04287522  0.12367241  0.06917002  0.00046395  0.13673809  0.11404514
  0.25224656  0.11938519  0.19020289  0.19475624 -0.0689896  -0.00309664
  0.05029562  0.16012754 -0.07071025 -0.09306176  0.00846457 -0.02816243
 -0.05114029  0.10278     0.16381314  0.10285972  0.00826143  0.12061801
  0.17524515 -0.00960511  0.16639464  0.15469351  0.08172258  0.0539872
  0.2405822  -0.07079779  0.05737988  0.04942358  0.06491354  0.04415482
 -0.04226046  0.23861529 -0.08218155 -0.0433613  -0.10170875 -0.06193976
 -0.08310688  0.08831708 -0.22916839 -0.07456096 -0.11946263 -0.05042221
  0.06245184 -0.14387566 -0.09124612 -0.01148276  0.24862868  0.18662746
  0.06011318  0.36383578  0.01468313 -0.01639036  0.14903928 -0.03652217
 -0.01087737 -0.11005742  0.08651333 -0.10393468  0.13605438 -0.04213583
  0.03432122  0.09659564  0.1240159   0.2041718   0.07279012 -0.10670429
  0.06305548 -0.1676068   0.07744589 -0.12793598 -0.01726721  0.17295651
  0.07968903 -0.08540698  0.06605905  0.14439286  0.12654266 -0.0097734
  0.025483   -0.08931926 -0.00469279  0.05910702  0.08491001 -0.13363695
  0.1218911  -0.06239959  0.17753345 -0.00903534  0.04211476  0.06015926
  0.03085024  0.02988184  0.02062541  0.09101145  0.12352791  0.02242021
  0.20560019  0.11762405  0.01531647  0.06762106 -0.04293111  0.04480321
  0.14285737 -0.10778884]
dense_5/kernel:0
(128, 10)
[[-0.19605339 -0.36259818  0.03473613 ...  0.00902934  0.21906832
   0.116306  ]
 [ 0.07325612  0.32011428 -0.02990496 ...  0.11328048 -0.25662506
   0.05718126]
 [ 0.1141123   0.40480888 -0.39717597 ...  0.03612703 -0.19253023
  -0.29758054]
 ...
 [ 0.05394929 -0.15793248  0.0253127  ... -0.0258648   0.183054
   0.08541578]
 [ 0.18075728  0.24309108  0.13376558 ... -0.27046645 -0.15183797
  -0.36045623]
 [ 0.08422817  0.45344067  0.04266827 ...  0.17588648 -0.09895869
  -0.23053136]]
dense_5/bias:0
(10,)
[-0.11596388 -0.3582928  -0.10933609  0.00393074  0.03027016  0.21111077
  0.05824969 -0.13276562  0.1551549   0.05925175]
